FANN_FLO_2.1
num_layers=3
learning_rate=0.700000
connection_rate=1.000000
network_type=0
learning_momentum=0.000000
training_algorithm=2
train_error_function=1
train_stop_function=0
cascade_output_change_fraction=0.010000
quickprop_decay=-0.000100
quickprop_mu=1.750000
rprop_increase_factor=1.200000
rprop_decrease_factor=0.500000
rprop_delta_min=0.000000
rprop_delta_max=50.000000
rprop_delta_zero=0.100000
cascade_output_stagnation_epochs=12
cascade_candidate_change_fraction=0.010000
cascade_candidate_stagnation_epochs=12
cascade_max_out_epochs=150
cascade_min_out_epochs=50
cascade_max_cand_epochs=150
cascade_min_cand_epochs=50
cascade_num_candidate_groups=2
bit_fail_limit=9.99999977648258209229e-03
cascade_candidate_limit=1.00000000000000000000e+03
cascade_weight_multiplier=4.00000005960464477539e-01
cascade_activation_functions_count=10
cascade_activation_functions=3 5 7 8 10 11 14 15 16 17 
cascade_activation_steepnesses_count=4
cascade_activation_steepnesses=2.50000000000000000000e-01 5.00000000000000000000e-01 7.50000000000000000000e-01 1.00000000000000000000e+00 
layer_sizes=5 8 2 
scale_included=0
neurons (num_inputs, activation_function, activation_steepness)=(0, 0, 0.00000000000000000000e+00) (0, 0, 0.00000000000000000000e+00) (0, 0, 0.00000000000000000000e+00) (0, 0, 0.00000000000000000000e+00) (0, 0, 0.00000000000000000000e+00) (5, 5, 1.00000000000000000000e+00) (5, 5, 1.00000000000000000000e+00) (5, 5, 1.00000000000000000000e+00) (5, 5, 1.00000000000000000000e+00) (5, 5, 1.00000000000000000000e+00) (5, 5, 1.00000000000000000000e+00) (5, 5, 1.00000000000000000000e+00) (0, 5, 1.00000000000000000000e+00) (8, 5, 1.00000000000000000000e+00) (0, 5, 1.00000000000000000000e+00) 
connections (connected_to_neuron, weight)=(0, -7.99899548292160034180e-02) (1, -2.30973213911056518555e-01) (2, 1.35390341281890869141e-01) (3, 1.49133360385894775391e+00) (4, -1.66761159896850585938e-01) (0, -3.41680422425270080566e-02) (1, -2.15420886874198913574e-01) (2, 4.84975397586822509766e-01) (3, 4.58299219608306884766e-01) (4, -3.37386995553970336914e-01) (0, -3.81948828697204589844e-01) (1, -1.39179617166519165039e-01) (2, 2.56228476762771606445e-01) (3, 1.09906995296478271484e+00) (4, -4.27308380603790283203e-01) (0, -1.29290342330932617188e-01) (1, -1.74218282103538513184e-01) (2, -3.87604653835296630859e-01) (3, -5.78500986099243164062e-01) (4, -9.28000733256340026855e-02) (0, 1.84805497527122497559e-01) (1, -6.49404287338256835938e-01) (2, 4.14358228445053100586e-01) (3, 5.56317687034606933594e-01) (4, -1.08695421367883682251e-02) (0, -1.52013823390007019043e-01) (1, -4.34394061565399169922e-01) (2, 5.29684603214263916016e-01) (3, 1.25635278224945068359e+00) (4, -1.66445925831794738770e-01) (0, 8.90026167035102844238e-02) (1, 3.34712803363800048828e-01) (2, -4.71334517002105712891e-01) (3, -6.04534566402435302734e-01) (4, 3.03876101970672607422e-01) (5, -2.95163035392761230469e+00) (6, -3.06049370765686035156e+00) (7, -3.82574975490570068359e-01) (8, -3.96367944777011871338e-02) (9, -8.03245753049850463867e-02) (10, -7.45349025726318359375e+00) (11, 4.90283459424972534180e-01) (12, -5.08445352315902709961e-02) 
